FANN_FLO_2.1
num_layers=3
learning_rate=0.700000
connection_rate=1.000000
network_type=0
learning_momentum=0.000000
training_algorithm=2
train_error_function=1
train_stop_function=0
cascade_output_change_fraction=0.010000
quickprop_decay=-0.000100
quickprop_mu=1.750000
rprop_increase_factor=1.200000
rprop_decrease_factor=0.500000
rprop_delta_min=0.000000
rprop_delta_max=50.000000
rprop_delta_zero=0.100000
cascade_output_stagnation_epochs=12
cascade_candidate_change_fraction=0.010000
cascade_candidate_stagnation_epochs=12
cascade_max_out_epochs=150
cascade_min_out_epochs=50
cascade_max_cand_epochs=150
cascade_min_cand_epochs=50
cascade_num_candidate_groups=2
bit_fail_limit=3.49999999999999977796e-01
cascade_candidate_limit=1.00000000000000000000e+03
cascade_weight_multiplier=4.00000000000000022204e-01
cascade_activation_functions_count=10
cascade_activation_functions=3 5 7 8 10 11 14 15 16 17 
cascade_activation_steepnesses_count=4
cascade_activation_steepnesses=2.50000000000000000000e-01 5.00000000000000000000e-01 7.50000000000000000000e-01 1.00000000000000000000e+00 
layer_sizes=11 12 2 
scale_included=0
neurons (num_inputs, activation_function, activation_steepness)=(0, 0, 0.00000000000000000000e+00) (0, 0, 0.00000000000000000000e+00) (0, 0, 0.00000000000000000000e+00) (0, 0, 0.00000000000000000000e+00) (0, 0, 0.00000000000000000000e+00) (0, 0, 0.00000000000000000000e+00) (0, 0, 0.00000000000000000000e+00) (0, 0, 0.00000000000000000000e+00) (0, 0, 0.00000000000000000000e+00) (0, 0, 0.00000000000000000000e+00) (0, 0, 0.00000000000000000000e+00) (11, 4, 5.00000000000000000000e-01) (11, 4, 5.00000000000000000000e-01) (11, 4, 5.00000000000000000000e-01) (11, 4, 5.00000000000000000000e-01) (11, 4, 5.00000000000000000000e-01) (11, 4, 5.00000000000000000000e-01) (11, 4, 5.00000000000000000000e-01) (11, 4, 5.00000000000000000000e-01) (11, 4, 5.00000000000000000000e-01) (11, 4, 5.00000000000000000000e-01) (11, 4, 5.00000000000000000000e-01) (0, 0, 0.00000000000000000000e+00) (12, 4, 5.00000000000000000000e-01) (0, 0, 0.00000000000000000000e+00) 
connections (connected_to_neuron, weight)=(0, -4.18037508345852870661e+00) (1, -3.42237565852997693838e-01) (2, -4.55918390541339313415e+00) (3, 1.11967125804332323646e+00) (4, 7.10058693479387215142e-01) (5, -4.34753707575588510537e+00) (6, -4.53616742963329944160e+00) (7, 4.42561155292345063117e+01) (8, 1.68884154337892411490e+01) (9, -4.77128602495917490955e+01) (10, 5.22279921708148187065e-01) (0, -5.13836579173795104936e-01) (1, -3.43040327646943321582e+00) (2, 7.04501225387143215073e+00) (3, -3.85003452215732344666e-01) (4, -3.35786253251086574956e-01) (5, -4.07580928353221850102e+02) (6, 2.84793977878365581091e+02) (7, 1.69920828133637985546e-01) (8, -5.91210241699623395562e+00) (9, -1.46979566623295750105e+03) (10, -2.45285264755913434698e+00) (0, 6.41168227544189006650e-01) (1, 1.99964283475022419623e+00) (2, 4.65620405341876963945e+00) (3, -4.11349061292346829255e-01) (4, -4.52773100348742074672e-01) (5, -4.23704264213935317684e+01) (6, -1.19390414145271002155e+01) (7, 8.92097306416030733089e+00) (8, 4.66924891103790040692e-01) (9, 1.59942495806658797619e+01) (10, -1.22958254892998289365e-01) (0, 8.37071930813303444197e-01) (1, -2.26979714611469374219e+00) (2, 7.72898374672764232329e-01) (3, 1.54908067339765898041e+00) (4, 8.79139208844596065084e-01) (5, -6.91724582860280801100e+00) (6, -6.06068044803832783884e+00) (7, 3.83410544472728034293e+01) (8, 8.48911987306173010381e+00) (9, -4.41270787692866477414e+01) (10, 5.98089680678124957502e-01) (0, -8.08345148068329564239e+01) (1, -2.15505557240965472943e+01) (2, -1.07696198764015571570e+00) (3, -1.05645775625126248087e+00) (4, -2.24473932816779575550e-01) (5, -2.05530074135332663232e+00) (6, 1.41984438908094318776e+02) (7, -1.77328800656214831122e+01) (8, -3.83140158357074045448e-01) (9, -4.40389463928754423705e+02) (10, -1.34755188719593235191e+01) (0, -4.51810693828535203664e+00) (1, -1.39539605537068678132e+03) (2, -2.45720861472135609915e+01) (3, -1.88847589551166733512e-01) (4, -1.02299761951743103938e-01) (5, -6.34029601136048004406e+00) (6, -1.50000000000000000000e+03) (7, -1.15461113172280516181e+00) (8, -1.10111831578284347088e+00) (9, -1.48346592271183362755e+03) (10, 1.25385689591675735244e+01) (0, 8.92152202633345936533e-01) (1, -1.06099339986026275362e+00) (2, 1.09663591118488501497e-01) (3, 1.76659689071557601814e-01) (4, -1.05734837471772938344e-01) (5, 2.10521015817005219262e+00) (6, -4.43569677942931317460e+00) (7, 1.19723903336565040689e+01) (8, 1.05016046972718002372e+00) (9, -2.45846921200063164292e+01) (10, 1.20316939782999274278e-01) (0, -2.31272553541478274042e+01) (1, -3.81109034189681139537e+01) (2, 3.19502443061327046081e+00) (3, -2.73451655443242291899e-01) (4, -5.49730213164933645409e-01) (5, -4.61299528905928113431e+00) (6, 1.72290697613573343006e+02) (7, 3.30936556759274302930e-01) (8, -1.10223602786459323966e+02) (9, -4.32781309305865761416e+02) (10, -6.59265901193030590122e+00) (0, 7.59212958667008397384e+00) (1, -7.72129149352895609582e+01) (2, 6.78823168187227921067e+00) (3, -1.63284806646660701768e-01) (4, -5.04749581304206676458e-02) (5, -1.16291037968299724525e+03) (6, -1.50000000000000000000e+03) (7, -3.65196446597912185994e-02) (8, -1.31075972367203086311e-01) (9, -1.49998488048863191580e+03) (10, -1.08328763254890325651e-01) (0, -2.78442238868814273545e+00) (1, -3.65879753730353627361e+02) (2, 5.44066086218753586223e+00) (3, -3.59008977776716309283e-01) (4, -2.94768487859118188954e-01) (5, -1.07432271069464218272e+03) (6, -1.50000000000000000000e+03) (7, 5.61947880109902087042e+00) (8, -8.98382987565610524605e-01) (9, -1.43189890548247120705e+02) (10, -1.61405914368841468809e-01) (0, 2.42572685163220597815e+02) (1, -1.39539605537068678132e+03) (2, 1.64571184333683220302e+02) (3, 1.44414258980536419630e-01) (4, 6.54919072267951679622e-02) (5, -3.06004301214090279615e+00) (6, -1.50000000000000000000e+03) (7, -2.78052613114386588222e+02) (8, -2.90352370346134813772e+00) (9, -1.48432252720220617448e+03) (10, 3.31222163906427280455e-01) (11, -6.63966778587411599055e-01) (12, 1.88404857488382315722e+00) (13, -1.77505485040065003055e+00) (14, -5.86156354106447397001e-01) (15, 3.21834757963705808681e-01) (16, -1.94333480829421767488e+00) (17, -1.05273278748752563416e+00) (18, 3.00394045671622866855e-01) (19, -7.80249604255562871913e+01) (20, -7.51554123244414427063e+01) (21, -5.02567625625673142231e-01) (22, 4.14041071995971177166e-01) 
